//Numpy array shape [32, 2]
//Min -0.274943619967
//Max 0.312556207180
//Number of zeros 0

#ifndef W11_H_
#define W11_H_

#ifndef __SYNTHESIS__
model_default_t w11[64];
#else
model_default_t w11[64] = {0.2942757607, -0.1033355817, 0.1331708133, -0.0954607278, 0.2995913625, 0.1210257187, -0.1735813171, -0.2749436200, 0.0105643049, -0.1978376508, -0.0763048828, 0.0299279746, 0.0274478719, -0.1315607280, 0.0542258583, -0.2308278382, -0.1356093138, -0.0056014620, 0.1108902842, 0.0548451804, -0.2624531984, 0.2934411168, 0.0396178924, 0.2393685877, 0.2793399394, 0.3125562072, -0.1926228553, -0.1672502905, 0.0789547563, -0.0178623721, 0.1756364852, -0.2133080512, -0.1146273315, 0.0048554135, -0.0785353184, 0.0852449983, -0.1638317406, -0.0108405305, -0.1058328971, -0.1197723374, -0.0363405384, 0.2619164884, 0.0000344826, -0.0000020785, -0.2701538503, -0.0533604324, -0.2212089598, -0.0102809947, -0.2497478575, -0.1598008424, 0.1701630503, -0.0000245286, 0.1698838770, 0.1516766399, 0.1870152354, -0.0277546011, -0.2488728017, 0.0931022018, 0.0678742379, -0.0717386678, 0.1534330994, -0.1059226468, 0.0133624794, -0.1531055719};

#endif

#endif
