//Numpy array shape [16, 32]
//Min -0.511779785156
//Max 0.531215310097
//Number of zeros 0

#ifndef W5_H_
#define W5_H_

#ifndef __SYNTHESIS__
model_default_t w5[512];
#else
model_default_t w5[512] = {-0.3909117579, 0.3128965795, 0.2713089287, -0.2742780149, 0.0771952048, 0.3109816313, -0.3592292964, 0.0000279149, -0.0000293910, -0.2708312273, -0.1846159995, -0.3372576833, -0.3607888222, 0.0681943223, 0.3114682436, 0.3500933647, 0.0304469485, 0.0481897481, -0.1192202047, 0.2365208417, 0.1332393140, 0.2756700516, -0.0574030280, -0.4106732011, -0.2596783042, -0.2261971384, 0.2509748936, 0.4235775769, -0.0565554351, -0.0828015357, 0.1058660597, -0.0464075953, 0.0037800360, 0.2583247423, -0.3543262482, -0.2387431413, -0.2616673410, -0.0194799975, 0.3451773226, 0.0156793389, 0.0000049064, -0.3408429325, 0.2647083998, 0.0883625448, 0.2874350250, 0.1687225848, -0.3709197640, -0.2240559161, -0.1991966367, -0.3239221275, -0.3201199174, 0.1297406405, -0.1071295887, 0.0291805770, 0.3197838366, 0.2769062221, -0.3896709383, 0.2740418017, -0.2944937944, 0.3502900600, -0.1984440684, -0.3405314982, -0.4137395918, -0.1253659129, -0.1305063069, -0.2791664004, -0.3240545988, 0.3070981205, -0.4434481561, 0.0411577225, 0.3536066115, 0.0126523487, 0.1035218388, 0.3342959583, -0.0000000523, 0.3580352664, -0.1537414193, -0.1357671320, 0.0212413128, -0.4151038229, -0.0476551019, 0.3447628021, -0.2310210168, -0.0428364761, -0.0548885576, -0.2960429788, -0.2181895524, 0.0019273693, 0.0550321788, -0.2272464633, 0.1384921372, -0.1418597400, 0.1800792068, -0.0060555367, -0.1738810092, 0.2664648890, 0.0844194666, 0.0144598577, 0.0812724009, 0.3974288702, -0.3399154842, 0.2852723300, -0.0031344634, -0.1403510422, -0.3017428815, -0.3073971868, 0.1202926859, 0.2338173091, -0.2061517686, -0.3632548451, 0.3738436699, -0.3116337061, -0.1112637073, -0.1692253351, 0.0921711549, 0.2406207472, -0.0718445331, -0.3259866238, -0.1783373803, -0.2199926525, 0.4426412880, 0.2606129944, 0.0332739167, -0.0656113848, -0.0664212257, -0.0028888790, -0.4164559245, -0.0847871974, 0.1115226224, 0.4131902754, -0.0854160115, -0.2132641673, -0.2759574056, -0.1114285663, 0.1198211461, -0.0000154609, -0.1076812148, -0.3616299331, -0.0000084842, -0.0688486323, -0.3601611555, 0.1742771715, -0.1174902692, 0.2641675770, 0.0991867334, -0.2949859500, 0.3956672847, 0.3222708702, 0.0977942199, -0.0190276615, -0.0785230100, 0.0356473438, -0.2256897688, -0.1479381174, 0.3635604382, -0.1957018226, 0.3611676097, 0.2525246739, 0.1048930436, -0.2161574960, -0.3617535532, 0.3570732772, 0.1626913100, 0.4108675122, 0.1565359831, -0.0660879910, -0.2707169950, 0.0000018112, -0.0260055363, -0.3874758184, 0.0000015878, -0.3631702662, 0.0215145275, 0.4306001365, -0.2187999338, -0.2763523161, 0.3655545115, 0.2353275716, 0.0121871829, 0.2646341324, -0.3381522596, -0.3133176565, -0.0818355531, 0.2795073688, 0.4012961984, -0.3635787964, -0.1056055874, 0.0954821110, -0.4150929153, 0.2957631648, 0.4016449451, -0.1308233887, -0.1920491457, 0.3989325464, 0.0511335321, 0.0121129556, 0.3284280598, -0.1101377159, 0.0082163513, -0.2197713554, -0.0000270500, 0.1881876290, -0.1736424267, -0.0446360856, -0.1010455787, 0.1381028891, -0.2378097624, 0.4459242523, -0.2880092859, -0.3779519796, 0.0406709798, 0.4217322469, -0.1298465431, -0.3231501579, -0.1493540257, 0.1173710898, 0.5312153101, 0.3268625140, 0.3767550886, 0.5081115365, -0.2552310228, -0.5117797852, -0.1826263666, 0.2405342907, -0.2760423720, -0.2499209195, 0.0554721691, -0.2936893404, -0.1105706617, 0.2562997639, 0.2043481916, 0.0000347663, 0.2270928770, 0.0947744325, 0.0437543765, 0.3983784616, -0.1440815181, -0.4211435914, 0.4668828249, -0.1421861947, -0.3810310662, 0.0521262661, 0.0508009903, 0.5202993155, 0.0714770332, -0.3280785680, 0.3782564104, 0.0874601007, 0.3922968209, -0.0436826088, 0.2403063327, -0.3013471663, -0.3267660439, 0.1738825291, -0.3566475213, -0.1159955785, 0.1203211769, -0.2518863082, -0.2967009544, 0.0370033607, -0.0724835396, 0.2757536769, -0.2124212384, 0.0782851428, 0.2265765369, -0.2460205406, -0.0903065950, 0.1281283796, 0.1461230218, -0.0000921902, -0.1763183922, -0.2377724051, 0.1885497570, -0.2969841063, 0.0524599850, 0.0016458512, 0.1795630157, -0.0503323264, -0.1188615561, 0.3011814058, -0.1241068691, -0.0189132448, -0.2533825934, 0.2751322389, 0.1805100888, 0.2171729058, 0.3941486180, -0.0120219830, -0.0989585742, 0.3530315459, 0.2258672565, -0.3413785994, -0.1699968427, 0.1782183051, -0.2073958814, -0.1308078021, 0.0372586921, -0.4107591212, -0.0333793238, -0.0522437654, -0.2701785862, -0.3724643290, -0.1847364753, 0.1114594415, -0.1960302442, 0.3885480762, -0.0586246848, -0.2731155455, 0.2442790568, -0.0410913602, -0.1781024039, -0.3803439438, -0.1131733954, -0.2775707543, -0.0511568002, -0.0835339576, -0.0538693443, -0.0818621069, -0.0332266390, 0.0730900913, 0.2934352458, 0.1765851527, 0.2027293742, -0.4134502113, 0.3651818633, -0.1728718132, 0.1787163466, -0.3227615654, -0.1632342190, 0.3481849432, -0.1782995462, -0.1100651473, 0.1516464502, 0.2792569101, 0.0489688441, 0.2790022790, 0.0545163937, -0.0952041522, 0.2969182730, 0.3594788313, 0.3465752602, -0.0458806045, 0.2204164267, -0.0624993369, 0.3038042784, 0.1101128161, -0.0320645869, -0.2753864825, -0.2261659056, 0.4022424817, -0.3000789881, -0.1524837464, -0.1060293168, 0.1621805578, 0.3700545728, -0.3389933109, -0.0287003610, -0.1062664688, -0.2149923593, -0.1882205158, 0.0000108129, -0.2215628326, -0.1393483877, -0.0000021705, 0.0000180357, 0.1288979799, 0.3797459602, -0.2368902564, -0.0395549051, 0.1286691725, 0.4165724218, 0.1213154644, 0.1465584338, 0.1267849356, -0.2232776880, -0.2656906247, -0.2246597707, 0.3616953790, 0.1391267180, -0.3026224971, -0.0382876098, 0.3358776867, 0.0870804489, 0.3979865909, -0.2362746298, -0.1594160348, -0.1394966692, -0.0976108015, 0.0872871056, 0.3238129616, -0.0771759450, -0.1035599485, 0.2623522878, 0.1744356453, 0.0741198361, 0.0851122886, -0.0897800773, -0.0062408387, 0.4199673533, 0.4143705368, -0.1075412259, -0.2963225543, -0.3824693561, 0.1961805522, -0.0823186934, -0.2052547634, -0.4113247395, 0.3208796084, 0.3018079102, -0.0087434221, -0.0224091001, -0.1933011264, 0.3954866827, 0.2266476303, -0.1538561285, 0.0905893072, -0.0774247497, -0.1818684787, 0.0638240352, -0.3063403666, -0.1576876789, 0.0845949128, 0.2976195216, 0.1527437866, 0.0000106378, 0.3763085604, -0.2691012919, -0.2204298377, -0.2740267813, -0.1113158911, 0.4245007634, -0.1875869334, 0.2981998622, 0.1895357519, 0.0231794491, 0.2168436348, 0.0724719614, -0.1241155788, -0.0402820744, -0.1875828952, 0.0123641593, -0.1220355257, 0.2668518126, -0.3684477508, -0.0345415249, 0.0964545235, -0.1462928653, 0.4092813730, -0.1497538090, -0.3472184241, -0.1379109621, -0.2495182306, 0.4177493155, 0.4240846634, -0.3476661742, 0.1484944522, -0.0709443912, 0.2911604345, -0.1377402544, -0.0426793732, -0.1486827284, 0.4150894284, -0.4122735560, 0.3419362903, -0.1444065124, 0.2454127371, 0.1398143023, -0.1886074245, 0.2883300185, 0.0224899594, -0.3211239874, 0.2624514699, -0.0942121521, 0.0513985753, -0.4536471069, 0.2064639777, -0.1394895017, 0.1935113966, 0.2720977664, 0.0549249761, -0.0281786863, -0.0694398880, -0.0000252682, -0.3995321095, -0.1823844016, 0.4072634280, 0.4319552779, -0.3383660316, -0.1810089946, -0.1790004969, -0.1332039684, -0.2996889651, -0.0103190625, 0.1164789423, 0.4177532196, -0.3877240419, -0.1720434427, -0.0658124536, -0.0428034514, 0.1403269768, -0.2000730038, -0.1184602603, 0.3271705508, 0.3722105920, 0.0874664634, -0.0781276077, -0.0144285681, 0.0179135520, 0.3752011359, 0.2487931103, 0.0118359132, -0.0341315977};

#endif

#endif
