//Numpy array shape [32, 32]
//Min -0.326218456030
//Max 0.404124587774
//Number of zeros 0

#ifndef W8_H_
#define W8_H_

#ifndef __SYNTHESIS__
model_default_t w8[1024];
#else
model_default_t w8[1024] = {0.1050142199, -0.0637999699, 0.1724927425, 0.1169187352, 0.1521333158, 0.2969861925, -0.1206070110, -0.1683170050, -0.1677951515, 0.0335042477, 0.0083546285, 0.2568853199, 0.1083799079, -0.1266748905, 0.1718841195, 0.2349348217, 0.1803438962, -0.0000197081, 0.0849857479, -0.0819257498, 0.0000058073, 0.0000179413, -0.1721851975, 0.0645824298, 0.1827407032, 0.0000081902, -0.3025839627, -0.1382666826, 0.2526720762, -0.2758460939, 0.1227362975, -0.0000026330, -0.1366954893, -0.1047341749, -0.2379347682, -0.0184623059, 0.2756167352, -0.2784198523, -0.0573597401, -0.1646513492, 0.2677574158, 0.1550697386, 0.2929734290, -0.0265626777, -0.0951291248, -0.2299888283, -0.1625059843, -0.2111731917, -0.0374292769, 0.1916375160, -0.2005574554, 0.1883495897, -0.1224325597, -0.1024427116, 0.0681033805, -0.2982269526, -0.2936544418, -0.1828177571, -0.1912321746, -0.2196166366, 0.0357777700, 0.0389122218, 0.2363972664, 0.0973416418, 0.1329372078, 0.0000356575, -0.0119354557, 0.2069981992, 0.0173088182, 0.1867903173, -0.1639629155, -0.1116242930, -0.1137246490, 0.1029338986, -0.2298699021, -0.2492378354, -0.1841164678, -0.1784436703, 0.0420924537, -0.1935180724, -0.2466428280, 0.1253173053, 0.1639556289, -0.1848456562, 0.0702640414, 0.1983444542, 0.2468135506, 0.0318928286, -0.1458274722, -0.0730651990, -0.0747393444, 0.1499078423, 0.1840950400, 0.3230098188, 0.0281084906, 0.0246059336, -0.2143084854, -0.1179098710, -0.0000461630, 0.0402665734, -0.0000117649, -0.1587861478, -0.1660970449, -0.0044651148, -0.1751372963, 0.0937371105, -0.1541285962, -0.1707756668, 0.0948080420, -0.0004005274, 0.2484123111, -0.2713937461, 0.0000001024, 0.0000089219, 0.1068143845, 0.1458040774, -0.1889205426, -0.0820340812, -0.1122386083, 0.1377872527, 0.2242457867, 0.0929698199, 0.2146802396, -0.2173212767, 0.1091838405, -0.1589557528, -0.1787078232, -0.0000160783, -0.1764220297, 0.1591808796, 0.0168505050, -0.1651672572, 0.0441936105, 0.1431947500, -0.0029232786, 0.0468667857, -0.2770602703, 0.1743425578, -0.1525159925, -0.1714103669, 0.1289726645, 0.0183014441, 0.3410176933, -0.2373821437, 0.1991517842, 0.1563547254, 0.1681119502, 0.1410951167, -0.1267851144, -0.1961696893, -0.1668450832, 0.2030254155, 0.2452840656, -0.1564414650, 0.1738186330, 0.1494455636, 0.1163308769, 0.3338047862, 0.2032748461, -0.0056634145, 0.2737608850, -0.0212880541, 0.0142206140, -0.0376393907, -0.1104218811, 0.1277843118, -0.1793418527, 0.1145192832, -0.2025483847, 0.2031316906, -0.0676863641, 0.2357697636, 0.2454844415, -0.1900309771, 0.0544994436, -0.0390405692, -0.0012276007, -0.0610381141, 0.2396093309, 0.1460321248, -0.0896901563, -0.1831347495, -0.0235121585, -0.2034582943, 0.1209042594, -0.1634555608, 0.3042322695, 0.1526207626, 0.2594237328, 0.2097357512, -0.0409352630, -0.1797766685, -0.0022916913, 0.0878942385, -0.2079174072, 0.2480679005, -0.2061225623, -0.0788898170, -0.0434084013, 0.2571720779, 0.2950097322, -0.1378944069, 0.1491993070, 0.0908834562, -0.2718486190, -0.1545062363, -0.1533070356, 0.2461814731, 0.0753035992, -0.1084913909, 0.0267870352, -0.1192996278, -0.0279921573, -0.0521652102, -0.2462684512, -0.1194251478, -0.3113648891, -0.0704874471, 0.0660846978, -0.2294735909, -0.0571929440, -0.3174001873, 0.2328661233, -0.1414325237, -0.0000179572, -0.0957380682, -0.0000015260, 0.1316545904, -0.0000092545, 0.0000047760, -0.0000082127, 0.1225899085, 0.1749382764, -0.1312687993, -0.0081954421, 0.1434041560, 0.0435180515, 0.0000150452, 0.0389411226, -0.1166968867, -0.0000129105, -0.0000092866, 0.1130944118, -0.0998313650, 0.0422680750, 0.0000065496, -0.0679287091, -0.0704365745, 0.0000027933, 0.0135527449, 0.0000056331, 0.1549092233, -0.0408123359, -0.1943473965, -0.0907268673, 0.0000207052, -0.1549473107, -0.0000017399, 0.2098539621, -0.0850411206, -0.1369175762, -0.0869512931, -0.1248621196, 0.1602973938, 0.0000285927, 0.0071856352, 0.1164462194, 0.0843310729, -0.1776963472, 0.2047606856, 0.0000087854, -0.0000150279, -0.1858814806, 0.0000103615, 0.0296253562, -0.0991650298, -0.1262106001, 0.0767729431, 0.0330988392, -0.0794207305, 0.0000018028, 0.0000036860, 0.1692443639, -0.0712902322, -0.0631947145, -0.1536089927, -0.1356830597, 0.1378331482, 0.1320174783, -0.0000116268, 0.1164736450, 0.1246695369, -0.2481314689, -0.2606717646, -0.1787882745, 0.1379269660, 0.1917981654, -0.2439658046, 0.1543442607, 0.2194080949, -0.1590534747, -0.0511895120, -0.2290113419, 0.0930454507, 0.0317536369, 0.2666933835, -0.0431470945, -0.2433014512, -0.0579158179, -0.0549508780, 0.0788791850, -0.2506758869, -0.0628310442, 0.1033187211, 0.3086972833, 0.2033779472, -0.2372252643, 0.2570620775, -0.1779285371, -0.1244685575, -0.0000002373, -0.0000007638, -0.1792824864, -0.0611038730, 0.1480799615, 0.0000012287, 0.0562186837, 0.1901843995, 0.0730767399, 0.0893284827, 0.0906599909, -0.0328506380, -0.0000154305, -0.1605367959, 0.0349600092, -0.0000010465, -0.0000113666, 0.1794391572, 0.0000094385, -0.0000153985, -0.0312892646, -0.1748486757, -0.0378718153, -0.1273977309, -0.0716683790, -0.0211516786, 0.0152027402, -0.1990296394, -0.1250671148, -0.0000305391, -0.0965999812, -0.0000107228, -0.0500503518, 0.1318577230, 0.1562770754, -0.1847200394, -0.0000262496, 0.2590340376, -0.1466702223, -0.2740977108, 0.1219716147, 0.0297827329, 0.1356301755, 0.1924632788, -0.0624966137, -0.0000270474, 0.2730242610, -0.1566897929, 0.2625906169, 0.0000087564, 0.2642824054, -0.0097775711, -0.0039889859, -0.0198414661, 0.2645562589, 0.1735898852, 0.1763079911, -0.0000048084, -0.1270009428, -0.0134600885, 0.1188541874, 0.0788216591, 0.0128111234, -0.1046716124, -0.1269463748, -0.0530813932, 0.1451175511, 0.0379894264, 0.0804279894, 0.2191704959, -0.1325920820, 0.0348859690, 0.0000317886, 0.0636340156, 0.0910332501, -0.1919664145, -0.1685303599, -0.0399646088, -0.0438625216, 0.1915425062, 0.0000013211, 0.1733706594, 0.1128738672, -0.0105868420, -0.0684745386, -0.0000159719, 0.0969800204, 0.2071806639, 0.2459855378, -0.0080611194, -0.2033124864, 0.2947181463, -0.0013452695, -0.0113440780, -0.1489463747, -0.0869168416, 0.2917160988, -0.0426804498, -0.2313385606, -0.1827563494, 0.0782668442, -0.2314146757, 0.0007886074, -0.1610084772, -0.1981122941, 0.0443461128, 0.1861255467, 0.1507511735, -0.0132231060, -0.0666001663, -0.2782419622, -0.0347138159, 0.0475330800, 0.2368478775, 0.1513014585, -0.2310281098, 0.1161501780, 0.0000015698, -0.2193594128, -0.3154667318, -0.1437922120, 0.0000024673, 0.0817644373, 0.0833446234, 0.2589904666, 0.2124822140, -0.1884415150, 0.2821500897, 0.3067167401, 0.1041680798, 0.1952078491, -0.1137284264, 0.2995717227, 0.0219041463, 0.1910775900, -0.2454555929, 0.0181211177, -0.0853719115, -0.0747695640, -0.0909926295, -0.0381100737, -0.1382368356, 0.3039865196, -0.1578009874, -0.0204770789, -0.1094803736, -0.2767423689, 0.1879550517, 0.1592484415, -0.0767189860, -0.2902573049, 0.1718062758, -0.0971755236, 0.0001564419, 0.3056929410, 0.0581807382, 0.1242771670, -0.1252156049, 0.1816799045, -0.1482785046, 0.2616744041, -0.2083570510, 0.1952635944, 0.2386849970, 0.0316483341, -0.1912022829, -0.0000017744, 0.2123878002, -0.0907113999, -0.1119946018, 0.1577112973, -0.2196749747, 0.1713823378, 0.0000287311, 0.0750483572, -0.0123050669, -0.1830426157, -0.2262198627, -0.1717265397, 0.0000085525, -0.0976410881, -0.0982710123, 0.2319552749, -0.0789326951, -0.0573018305, 0.1376217902, 0.3044370115, 0.2881365716, 0.0305751562, 0.0355018079, 0.4041245878, 0.0777345523, 0.2871895432, -0.1023860648, 0.2178561836, 0.2412082255, -0.0521822050, 0.1677269936, 0.0000034572, 0.1089145839, 0.0000042129, 0.2710054219, 0.1619793028, -0.0276275165, -0.1414129436, 0.1228642687, 0.2966470718, -0.2952173650, 0.1608357877, -0.1393498331, 0.2911115587, 0.1948015541, 0.1798655242, 0.0000066520, -0.0623379350, -0.0540424623, -0.1150111109, 0.1959777325, -0.2475536615, 0.2780279219, -0.0308865160, -0.2575370073, -0.2429257035, -0.0518651605, 0.1795021445, 0.0661437437, 0.2027225494, 0.2149048895, 0.0956248119, 0.0721122921, -0.0000015628, 0.0157386642, -0.0484253764, -0.1768013984, 0.1643060446, -0.0337954573, -0.1480702311, -0.2189390808, 0.0238383934, -0.0097298119, 0.1928242296, -0.2330061197, 0.0226830170, 0.0298425090, 0.0580272898, 0.1610243171, 0.1662686318, -0.2568266094, 0.2307927758, -0.0018404310, -0.2575184107, 0.1262368113, 0.0114536285, -0.2977516353, 0.0824234262, -0.2750570774, 0.2454870790, 0.0000315352, -0.1519338638, -0.1047720239, 0.2146795392, -0.3118185103, -0.0000050586, 0.2328324616, -0.0178469513, 0.1675228775, 0.2322474122, 0.2135021985, -0.0228316020, 0.2015864849, -0.2110957652, 0.3076691329, -0.0948985815, 0.2499248981, 0.2181435227, 0.1967342347, -0.0433267616, -0.0000060783, -0.1188976169, 0.0416121446, 0.2669472098, 0.1210423335, 0.2980956435, 0.0345576257, 0.1047566384, 0.3187110722, -0.0399912074, -0.1627485752, -0.2679975033, -0.2121212929, 0.1730885357, -0.0126223341, -0.2482549101, -0.1176137701, -0.1752903759, 0.1827116907, -0.1185201928, 0.2503222227, 0.1691522598, 0.0751176029, -0.1975598186, 0.1861745864, 0.3282102644, 0.1863787621, -0.0291065741, -0.2308823168, -0.1953292489, -0.1654665619, -0.1673041731, 0.1023381427, 0.0033217729, 0.2372387350, 0.1198980063, -0.0000147446, 0.2326381505, 0.0596946217, -0.2330494076, -0.0556310304, 0.2896156311, -0.1031709835, 0.0034364404, 0.1643450558, 0.2751915455, -0.2265826762, 0.2367208749, -0.0047278651, -0.1459217519, -0.0311806723, -0.2073294073, 0.0703590438, -0.0201405194, 0.2118475735, 0.0326412022, 0.1031510830, 0.0562243909, 0.0321755521, -0.0396240763, 0.0000157685, 0.0391401611, -0.1242058277, 0.0870852992, 0.0433098450, -0.0602673963, -0.0565509312, -0.0357808545, -0.0422203913, -0.1817780137, 0.1028817818, 0.1574078053, -0.2667673528, 0.0680988133, 0.2513199449, -0.2085094899, -0.0303637683, 0.2100893855, -0.2099942267, -0.1723912656, 0.2889091074, -0.0000404191, -0.2293050438, -0.1309443116, -0.2460660338, 0.1605768800, -0.2067701221, 0.2948373258, -0.2066989392, -0.0969960690, -0.1590622216, -0.2056798339, 0.1249354705, -0.2517156899, -0.1892936230, -0.1388208866, -0.0696922615, 0.1884638220, -0.0939530730, 0.1860035062, 0.1035366133, -0.1471206099, -0.1624123901, -0.1049925983, -0.1090089679, 0.2247807384, -0.1642384380, 0.1696754843, 0.1239566430, 0.0937028527, 0.0518561825, -0.2554785013, 0.0988326594, -0.0107247541, 0.2460269034, -0.0188637003, -0.1874972880, 0.0968306735, -0.1338352263, -0.0986625031, -0.2190916091, 0.0159488656, 0.1813700199, -0.1111851484, -0.1982674450, 0.1851329654, -0.1162069812, -0.1007319838, -0.0038224915, 0.2051212788, -0.0629124120, 0.2809967101, 0.0533027947, 0.2986781299, -0.1806057990, 0.0517584123, 0.1560813785, 0.1883527935, -0.0488878414, 0.0231819879, -0.2082793266, -0.0180982072, 0.1584594399, 0.0982236862, 0.2504326999, 0.0855594277, -0.0569404997, -0.1295375973, 0.1458422840, -0.2460076660, 0.0185443498, 0.0297536552, 0.2731499672, -0.2695097923, -0.1730117798, -0.2893070281, 0.0137123913, 0.2287078500, -0.0756542236, 0.0247155875, -0.0225037951, -0.2214701176, 0.0905350149, -0.0711827874, -0.0000161818, -0.1648826450, 0.2301639169, 0.1728522032, 0.2348114550, -0.1161738634, -0.1413396150, -0.2728921771, -0.1530830264, 0.0624961108, -0.0732121617, 0.0015731117, 0.0310712308, -0.2063866407, 0.2862187922, 0.0272746570, 0.2865847945, -0.1665053666, 0.3154293895, 0.2293034345, -0.0017340106, 0.2487186342, 0.1742252260, -0.0458567552, -0.2542404532, 0.2295793444, 0.0673678890, -0.1911219507, -0.0142548662, 0.0663580671, 0.0755971745, -0.2334425896, 0.0647888556, 0.1019863933, 0.0786769018, -0.0125771137, 0.1005580276, -0.0878600031, -0.0751059875, 0.2767580152, -0.1770237386, -0.2689662278, -0.2494564205, 0.0692896470, 0.2096443325, -0.1547253132, -0.1281042248, 0.0525493920, -0.2030569613, 0.0628758892, 0.0984306112, 0.0138778426, 0.0000340440, 0.2507733405, -0.1750246882, 0.0000151758, 0.0508180186, 0.1728385985, 0.2501989901, -0.1757124215, 0.1155247316, -0.0424728468, -0.1459365785, 0.0124986367, 0.0000052344, 0.2738916576, 0.0213526189, -0.0065711378, 0.3142562211, 0.1712662727, 0.1555733383, 0.3247652352, -0.1631795019, -0.2174778581, 0.1059400216, 0.0770362988, -0.3262184560, -0.1132422909, -0.0369439088, -0.1017270386, -0.0054989792, 0.1468383074, -0.0412121862, 0.2826416492, 0.0335555002, 0.0106074521, 0.2289689481, -0.0078435773, -0.1498230547, -0.1193268076, 0.0071137915, 0.1292677820, 0.0000087088, 0.2733271718, 0.2781638205, -0.0515589938, -0.0401832387, -0.2100450397, -0.1532548964, 0.0477121696, 0.1329338551, 0.0873246044, -0.1087122336, 0.2661907673, -0.1167428121, 0.0362790450, -0.3127649128, -0.1519866139, -0.0976695046, -0.0827030316, 0.2809508443, 0.1764569581, 0.2249700129, 0.0583336279, 0.1272717416, -0.1324241459, -0.2706595659, 0.0555987433, 0.1195779145, -0.1259397417, -0.0210450049, 0.1156820506, -0.1820937097, 0.0714577287, -0.1615871638, 0.0584530793, 0.0939846113, 0.2851894200, -0.1163743064, 0.1985772848, 0.2887541950, 0.2186361253, 0.3561518788, 0.3783554733, 0.0029694622, -0.2056714445, -0.1026084349, 0.0104340520, -0.0461920835, 0.0627061799, 0.0601585470, 0.1995914727, -0.0327673852, -0.1829262972, -0.0290499106, 0.2887992859, 0.0250250027, 0.2980349958, -0.2340128869, -0.2214187980, 0.1519172192, -0.2587037981, 0.2329693437, 0.1190448925, -0.1364790052, -0.2034061402, -0.1486270130, 0.0830360278, -0.0715816095, -0.0034544251, -0.0000165068, 0.0028978260, 0.1615200937, 0.2619011104, -0.2376396507, 0.1548710614, -0.0000091080, -0.1841814369, -0.1693638116, -0.1464421153, 0.1922973245, -0.1711143404, 0.2427843958, 0.0000111578, -0.0542184636, 0.0448867753, 0.1594075114, 0.2355203331, 0.0629302189, -0.2660307586, -0.0277697071, 0.0282167289, -0.1580624282, -0.0549646132, -0.1056232229, -0.1791224033, -0.1390856355, 0.2704438269, -0.0430931076, 0.1153264940, 0.1919685900, 0.1083363667, -0.0779004246, -0.1400932372, 0.3112581968, 0.1003924012, 0.1205247268, -0.1685207933, -0.1777767241, -0.1274271756, 0.1837456375, -0.0454185456, -0.1814302206, -0.1400086880, -0.3031317294, -0.0000043004, -0.0924095586, 0.1910455227, 0.2491223514, 0.0495875031, 0.0400084667, 0.2264419347, 0.2178059667, -0.0105310651, 0.1840850264, 0.2172557861, 0.2326166481, -0.0548698790, 0.2745129168, 0.1191508546, -0.1339673996, -0.0991792679, 0.1242048368, 0.2598041594, 0.0000319414, -0.0391586870, -0.0959006399, -0.2558979392, 0.2456912249, 0.0576391444, -0.1825044900, -0.2331817448, -0.0000287187, -0.2177998722, 0.1544790715, 0.2214782089, -0.0676241145, 0.0000019190, 0.2663390934, 0.0957769006, 0.1504746974, -0.2705619633, 0.0981242061, 0.2951809168, 0.2857334018, -0.2161554247, 0.2754411399, 0.0798233449, 0.2404395491, 0.0977090448, -0.2709511220, -0.0237172805, 0.1111749038, 0.0004270464, -0.0938301980, 0.2761319578, 0.0752589777, -0.2441033274, -0.2108568400, 0.0565042347, 0.0869662315, -0.0034754521, 0.2941940129};

#endif

#endif
